digraph Tree {
node [shape=box] ;
0 [label="Age <= 51.5\ngini = 0.485\nsamples = 273\nvalue = [61, 28, 184]"] ;
1 [label="Employment status <= 0.5\ngini = 0.499\nsamples = 83\nvalue = [54, 7, 22]"] ;
0 -> 1 [labeldistance=2.5, labelangle=45, headlabel="True"] ;
2 [label="Level of Fitness <= 3.5\ngini = 0.105\nsamples = 18\nvalue = [1, 0, 17]"] ;
1 -> 2 ;
3 [label="gini = 0.0\nsamples = 17\nvalue = [0, 0, 17]"] ;
2 -> 3 ;
4 [label="gini = 0.0\nsamples = 1\nvalue = [1, 0, 0]"] ;
2 -> 4 ;
5 [label="Platelets (e9/L) <= 184.0\ngini = 0.318\nsamples = 65\nvalue = [53, 7, 5]"] ;
1 -> 5 ;
6 [label="If Current: (2) - Days/month <= 2.0\ngini = 0.612\nsamples = 7\nvalue = [1, 3, 3]"] ;
5 -> 6 ;
7 [label="gini = 0.0\nsamples = 3\nvalue = [0, 3, 0]"] ;
6 -> 7 ;
8 [label="Exercise: If Yes - miles/week <= 8.5\ngini = 0.375\nsamples = 4\nvalue = [1, 0, 3]"] ;
6 -> 8 ;
9 [label="gini = 0.0\nsamples = 3\nvalue = [0, 0, 3]"] ;
8 -> 9 ;
10 [label="gini = 0.0\nsamples = 1\nvalue = [1, 0, 0]"] ;
8 -> 10 ;
11 [label="Diet <= 0.5\ngini = 0.19\nsamples = 58\nvalue = [52, 4, 2]"] ;
5 -> 11 ;
12 [label="TACE levels Venous sample (pg/ml) <= 578.0\ngini = 0.444\nsamples = 3\nvalue = [0, 1, 2]"] ;
11 -> 12 ;
13 [label="gini = 0.0\nsamples = 2\nvalue = [0, 0, 2]"] ;
12 -> 13 ;
14 [label="gini = 0.0\nsamples = 1\nvalue = [0, 1, 0]"] ;
12 -> 14 ;
15 [label="WBC (e9/L) <= 1.0\ngini = 0.103\nsamples = 55\nvalue = [52, 3, 0]"] ;
11 -> 15 ;
16 [label="gini = 0.0\nsamples = 1\nvalue = [0, 1, 0]"] ;
15 -> 16 ;
17 [label="DcT (NLRP3 - GAPDH) <= 4.5\ngini = 0.071\nsamples = 54\nvalue = [52, 2, 0]"] ;
15 -> 17 ;
18 [label="gini = 0.0\nsamples = 1\nvalue = [0, 1, 0]"] ;
17 -> 18 ;
19 [label="FD <= 5.5\ngini = 0.037\nsamples = 53\nvalue = [52, 1, 0]"] ;
17 -> 19 ;
20 [label="gini = 0.0\nsamples = 51\nvalue = [51, 0, 0]"] ;
19 -> 20 ;
21 [label="GAPDH <= 22.5\ngini = 0.5\nsamples = 2\nvalue = [1, 1, 0]"] ;
19 -> 21 ;
22 [label="gini = 0.0\nsamples = 1\nvalue = [0, 1, 0]"] ;
21 -> 22 ;
23 [label="gini = 0.0\nsamples = 1\nvalue = [1, 0, 0]"] ;
21 -> 23 ;
24 [label="Ch/HDL (ratio) <= 0.6\ngini = 0.259\nsamples = 190\nvalue = [7, 21, 162]"] ;
0 -> 24 [labeldistance=2.5, labelangle=-45, headlabel="False"] ;
25 [label="WBC (e9/L) <= 6.5\ngini = 0.615\nsamples = 45\nvalue = [7, 17, 21]"] ;
24 -> 25 ;
26 [label="FD <= 6.5\ngini = 0.565\nsamples = 27\nvalue = [6, 16, 5]"] ;
25 -> 26 ;
27 [label="TACE surface protein levels (ajusted to 5000ug/ml of total proteins) in pg/ml <= 67.0\ngini = 0.408\nsamples = 21\nvalue = [6, 15, 0]"] ;
26 -> 27 ;
28 [label="1/DcT IL1B * 100 <= 14.5\ngini = 0.278\nsamples = 18\nvalue = [3, 15, 0]"] ;
27 -> 28 ;
29 [label="Wheigh (kg) <= 58.5\ngini = 0.117\nsamples = 16\nvalue = [1, 15, 0]"] ;
28 -> 29 ;
30 [label="gini = 0.0\nsamples = 1\nvalue = [1, 0, 0]"] ;
29 -> 30 ;
31 [label="gini = 0.0\nsamples = 15\nvalue = [0, 15, 0]"] ;
29 -> 31 ;
32 [label="gini = 0.0\nsamples = 2\nvalue = [2, 0, 0]"] ;
28 -> 32 ;
33 [label="gini = 0.0\nsamples = 3\nvalue = [3, 0, 0]"] ;
27 -> 33 ;
34 [label="Systolic BP <= 166.5\ngini = 0.278\nsamples = 6\nvalue = [0, 1, 5]"] ;
26 -> 34 ;
35 [label="gini = 0.0\nsamples = 5\nvalue = [0, 0, 5]"] ;
34 -> 35 ;
36 [label="gini = 0.0\nsamples = 1\nvalue = [0, 1, 0]"] ;
34 -> 36 ;
37 [label="NLRP3 <= 30.0\ngini = 0.204\nsamples = 18\nvalue = [1, 1, 16]"] ;
25 -> 37 ;
38 [label="gini = 0.0\nsamples = 16\nvalue = [0, 0, 16]"] ;
37 -> 38 ;
39 [label="Hb (g/L) <= 138.0\ngini = 0.5\nsamples = 2\nvalue = [1, 1, 0]"] ;
37 -> 39 ;
40 [label="gini = 0.0\nsamples = 1\nvalue = [1, 0, 0]"] ;
39 -> 40 ;
41 [label="gini = 0.0\nsamples = 1\nvalue = [0, 1, 0]"] ;
39 -> 41 ;
42 [label="DcT (NLRP3 - GAPDH) <= 5.5\ngini = 0.054\nsamples = 145\nvalue = [0, 4, 141]"] ;
24 -> 42 ;
43 [label="gini = 0.0\nsamples = 126\nvalue = [0, 0, 126]"] ;
42 -> 43 ;
44 [label="TACE <= 28.5\ngini = 0.332\nsamples = 19\nvalue = [0, 4, 15]"] ;
42 -> 44 ;
45 [label="Ch/HDL (ratio) <= 2.15\ngini = 0.117\nsamples = 16\nvalue = [0, 1, 15]"] ;
44 -> 45 ;
46 [label="gini = 0.0\nsamples = 1\nvalue = [0, 1, 0]"] ;
45 -> 46 ;
47 [label="gini = 0.0\nsamples = 15\nvalue = [0, 0, 15]"] ;
45 -> 47 ;
48 [label="gini = 0.0\nsamples = 3\nvalue = [0, 3, 0]"] ;
44 -> 48 ;
}